<?xml version="1.0"?>
<opencv_storage>
<mypokerdetector_2 type_id="opencv-haar-classifier">
  <size>
    24 24</size>
  <stages>
    <_>
      <trees>
        <_>
          <_>
            <feature>
              <rects>
                <_>
                  0 0 16 18 -1.</_>
                <_>
                  0 9 16 9 2.</_></rects>
              <tilted>0</tilted></feature>
            <threshold>-0.0911441594362259</threshold>
            <left_val>-1.</left_val>
            <right_val>1.</right_val></_></_></trees>
      <stage_threshold>1.</stage_threshold>
      <parent>-1</parent>
      <next>-1</next></_>
    <_>
      <trees>
        <_>
          <_>
            <feature>
              <rects>
                <_>
                  0 0 18 3 -1.</_>
                <_>
                  0 1 18 1 3.</_></rects>
              <tilted>0</tilted></feature>
            <threshold>1.1252809781581163e-004</threshold>
            <left_val>-1.</left_val>
            <right_val>1.</right_val></_></_></trees>
      <stage_threshold>1.</stage_threshold>
      <parent>0</parent>
      <next>-1</next></_>
    <_>
      <trees>
        <_>
          <_>
            <feature>
              <rects>
                <_>
                  0 11 6 6 -1.</_>
                <_>
                  0 11 3 3 2.</_>
                <_>
                  3 14 3 3 2.</_></rects>
              <tilted>0</tilted></feature>
            <threshold>-8.2843372365459800e-004</threshold>
            <left_val>1.</left_val>
            <right_val>-1.</right_val></_></_></trees>
      <stage_threshold>1.</stage_threshold>
      <parent>1</parent>
      <next>-1</next></_>
    <_>
      <trees>
        <_>
          <_>
            <feature>
              <rects>
                <_>
                  0 1 2 3 -1.</_>
                <_>
                  1 1 1 3 2.</_></rects>
              <tilted>0</tilted></feature>
            <threshold>1.2981260078959167e-004</threshold>
            <left_val>1.</left_val>
            <right_val>-1.</right_val></_></_></trees>
      <stage_threshold>1.</stage_threshold>
      <parent>2</parent>
      <next>-1</next></_>
    <_>
      <trees>
        <_>
          <_>
            <feature>
              <rects>
                <_>
                  3 0 1 2 -1.</_>
                <_>
                  3 1 1 1 2.</_></rects>
              <tilted>0</tilted></feature>
            <threshold>-6.7422282882034779e-005</threshold>
            <left_val>-1.</left_val>
            <right_val>1.</right_val></_></_></trees>
      <stage_threshold>1.</stage_threshold>
      <parent>3</parent>
      <next>-1</next></_>
    <_>
      <trees>
        <_>
          <_>
            <feature>
              <rects>
                <_>
                  4 0 3 4 -1.</_>
                <_>
                  4 1 3 2 2.</_></rects>
              <tilted>0</tilted></feature>
            <threshold>1.1549750342965126e-003</threshold>
            <left_val>-1.</left_val>
            <right_val>1.</right_val></_></_></trees>
      <stage_threshold>1.</stage_threshold>
      <parent>4</parent>
      <next>-1</next></_>
    <_>
      <trees>
        <_>
          <_>
            <feature>
              <rects>
                <_>
                  0 17 24 7 -1.</_>
                <_>
                  6 17 12 7 2.</_></rects>
              <tilted>0</tilted></feature>
            <threshold>-0.0106216697022319</threshold>
            <left_val>1.</left_val>
            <right_val>-1.</right_val></_></_></trees>
      <stage_threshold>1.</stage_threshold>
      <parent>5</parent>
      <next>-1</next></_>
    <_>
      <trees>
        <_>
          <_>
            <feature>
              <rects>
                <_>
                  0 0 12 18 -1.</_>
                <_>
                  6 0 6 18 2.</_></rects>
              <tilted>0</tilted></feature>
            <threshold>-0.0132147297263145</threshold>
            <left_val>-1.</left_val>
            <right_val>1.</right_val></_></_></trees>
      <stage_threshold>1.</stage_threshold>
      <parent>6</parent>
      <next>-1</next></_>
    <_>
      <trees>
        <_>
          <_>
            <feature>
              <rects>
                <_>
                  0 4 21 20 -1.</_>
                <_>
                  7 4 7 20 3.</_></rects>
              <tilted>0</tilted></feature>
            <threshold>0.0274986103177071</threshold>
            <left_val>-1.</left_val>
            <right_val>1.</right_val></_></_></trees>
      <stage_threshold>1.</stage_threshold>
      <parent>7</parent>
      <next>-1</next></_>
    <_>
      <trees>
        <_>
          <_>
            <feature>
              <rects>
                <_>
                  0 2 2 12 -1.</_>
                <_>
                  0 2 1 6 2.</_>
                <_>
                  1 8 1 6 2.</_></rects>
              <tilted>0</tilted></feature>
            <threshold>7.2022271342575550e-004</threshold>
            <left_val>1.</left_val>
            <right_val>-1.</right_val></_></_></trees>
      <stage_threshold>1.</stage_threshold>
      <parent>8</parent>
      <next>-1</next></_>
    <_>
      <trees>
        <_>
          <_>
            <feature>
              <rects>
                <_>
                  0 17 16 3 -1.</_>
                <_>
                  8 17 8 3 2.</_></rects>
              <tilted>0</tilted></feature>
            <threshold>-3.9676590822637081e-003</threshold>
            <left_val>-1.</left_val>
            <right_val>1.</right_val></_></_></trees>
      <stage_threshold>1.</stage_threshold>
      <parent>9</parent>
      <next>-1</next></_>
    <_>
      <trees>
        <_>
          <_>
            <feature>
              <rects>
                <_>
                  0 6 24 8 -1.</_>
                <_>
                  8 6 8 8 3.</_></rects>
              <tilted>0</tilted></feature>
            <threshold>0.0572553202509880</threshold>
            <left_val>1.</left_val>
            <right_val>-1.</right_val></_></_></trees>
      <stage_threshold>1.</stage_threshold>
      <parent>10</parent>
      <next>-1</next></_>
    <_>
      <trees>
        <_>
          <_>
            <feature>
              <rects>
                <_>
                  4 5 3 3 -1.</_>
                <_>
                  3 6 3 1 3.</_></rects>
              <tilted>1</tilted></feature>
            <threshold>1.8949330551549792e-003</threshold>
            <left_val>1.</left_val>
            <right_val>-1.</right_val></_></_></trees>
      <stage_threshold>1.</stage_threshold>
      <parent>11</parent>
      <next>-1</next></_>
    <_>
      <trees>
        <_>
          <_>
            <feature>
              <rects>
                <_>
                  2 5 4 6 -1.</_>
                <_>
                  2 5 2 3 2.</_>
                <_>
                  4 8 2 3 2.</_></rects>
              <tilted>0</tilted></feature>
            <threshold>3.8023741217330098e-004</threshold>
            <left_val>-1.</left_val>
            <right_val>1.</right_val></_></_></trees>
      <stage_threshold>1.</stage_threshold>
      <parent>12</parent>
      <next>-1</next></_></stages></mypokerdetector_2>
</opencv_storage>
