<?xml version="1.0"?>
<opencv_storage>
<mypokerdetector_7 type_id="opencv-haar-classifier">
  <size>
    24 24</size>
  <stages>
    <_>
      <trees>
        <_>
          <_>
            <feature>
              <rects>
                <_>
                  2 0 4 6 -1.</_>
                <_>
                  2 0 2 3 2.</_>
                <_>
                  4 3 2 3 2.</_></rects>
              <tilted>0</tilted></feature>
            <threshold>-5.8968998928321525e-005</threshold>
            <left_val>1.</left_val>
            <right_val>-1.</right_val></_></_></trees>
      <stage_threshold>1.</stage_threshold>
      <parent>-1</parent>
      <next>-1</next></_>
    <_>
      <trees>
        <_>
          <_>
            <feature>
              <rects>
                <_>
                  0 5 24 12 -1.</_>
                <_>
                  8 5 8 12 3.</_></rects>
              <tilted>0</tilted></feature>
            <threshold>7.5382161885499954e-003</threshold>
            <left_val>1.</left_val>
            <right_val>-1.</right_val></_></_></trees>
      <stage_threshold>1.</stage_threshold>
      <parent>0</parent>
      <next>-1</next></_>
    <_>
      <trees>
        <_>
          <_>
            <feature>
              <rects>
                <_>
                  1 21 2 2 -1.</_>
                <_>
                  1 21 1 1 2.</_>
                <_>
                  2 22 1 1 2.</_></rects>
              <tilted>0</tilted></feature>
            <threshold>-4.4747510401066393e-005</threshold>
            <left_val>-1.</left_val>
            <right_val>1.</right_val></_></_></trees>
      <stage_threshold>1.</stage_threshold>
      <parent>1</parent>
      <next>-1</next></_>
    <_>
      <trees>
        <_>
          <_>
            <feature>
              <rects>
                <_>
                  5 7 6 6 -1.</_>
                <_>
                  7 9 2 2 9.</_></rects>
              <tilted>0</tilted></feature>
            <threshold>0.0141904996708035</threshold>
            <left_val>-1.</left_val>
            <right_val>1.</right_val></_></_></trees>
      <stage_threshold>1.</stage_threshold>
      <parent>2</parent>
      <next>-1</next></_>
    <_>
      <trees>
        <_>
          <_>
            <feature>
              <rects>
                <_>
                  8 3 7 8 -1.</_>
                <_>
                  8 5 7 4 2.</_></rects>
              <tilted>0</tilted></feature>
            <threshold>-9.2254218179732561e-004</threshold>
            <left_val>-1.</left_val>
            <right_val>1.</right_val></_></_></trees>
      <stage_threshold>1.</stage_threshold>
      <parent>3</parent>
      <next>-1</next></_>
    <_>
      <trees>
        <_>
          <_>
            <feature>
              <rects>
                <_>
                  3 0 17 8 -1.</_>
                <_>
                  3 4 17 4 2.</_></rects>
              <tilted>0</tilted></feature>
            <threshold>-0.0427486896514893</threshold>
            <left_val>1.</left_val>
            <right_val>-1.</right_val></_></_></trees>
      <stage_threshold>1.</stage_threshold>
      <parent>4</parent>
      <next>-1</next></_>
    <_>
      <trees>
        <_>
          <_>
            <feature>
              <rects>
                <_>
                  0 0 3 7 -1.</_>
                <_>
                  1 0 1 7 3.</_></rects>
              <tilted>0</tilted></feature>
            <threshold>-6.4116960857063532e-004</threshold>
            <left_val>-1.</left_val>
            <right_val>1.</right_val></_></_></trees>
      <stage_threshold>1.</stage_threshold>
      <parent>5</parent>
      <next>-1</next></_>
    <_>
      <trees>
        <_>
          <_>
            <feature>
              <rects>
                <_>
                  0 0 4 23 -1.</_>
                <_>
                  1 0 2 23 2.</_></rects>
              <tilted>0</tilted></feature>
            <threshold>1.2447960034478456e-004</threshold>
            <left_val>-1.</left_val>
            <right_val>1.</right_val></_></_></trees>
      <stage_threshold>1.</stage_threshold>
      <parent>6</parent>
      <next>-1</next></_>
    <_>
      <trees>
        <_>
          <_>
            <feature>
              <rects>
                <_>
                  0 9 3 6 -1.</_>
                <_>
                  1 11 1 2 9.</_></rects>
              <tilted>0</tilted></feature>
            <threshold>-3.0134329572319984e-003</threshold>
            <left_val>-1.</left_val>
            <right_val>1.</right_val></_></_></trees>
      <stage_threshold>1.</stage_threshold>
      <parent>7</parent>
      <next>-1</next></_>
    <_>
      <trees>
        <_>
          <_>
            <feature>
              <rects>
                <_>
                  2 17 3 7 -1.</_>
                <_>
                  3 17 1 7 3.</_></rects>
              <tilted>0</tilted></feature>
            <threshold>1.7578470578882843e-004</threshold>
            <left_val>1.</left_val>
            <right_val>-1.</right_val></_></_></trees>
      <stage_threshold>1.</stage_threshold>
      <parent>8</parent>
      <next>-1</next></_>
    <_>
      <trees>
        <_>
          <_>
            <feature>
              <rects>
                <_>
                  0 0 14 18 -1.</_>
                <_>
                  0 0 7 9 2.</_>
                <_>
                  7 9 7 9 2.</_></rects>
              <tilted>0</tilted></feature>
            <threshold>-0.0670279487967491</threshold>
            <left_val>-1.</left_val>
            <right_val>1.</right_val></_></_></trees>
      <stage_threshold>1.</stage_threshold>
      <parent>9</parent>
      <next>-1</next></_>
    <_>
      <trees>
        <_>
          <_>
            <feature>
              <rects>
                <_>
                  1 1 12 1 -1.</_>
                <_>
                  4 1 6 1 2.</_></rects>
              <tilted>0</tilted></feature>
            <threshold>-8.0574660387355834e-005</threshold>
            <left_val>-1.</left_val>
            <right_val>1.</right_val></_></_></trees>
      <stage_threshold>1.</stage_threshold>
      <parent>10</parent>
      <next>-1</next></_>
    <_>
      <trees>
        <_>
          <_>
            <feature>
              <rects>
                <_>
                  0 13 8 2 -1.</_>
                <_>
                  2 13 4 2 2.</_></rects>
              <tilted>0</tilted></feature>
            <threshold>6.2239792896434665e-005</threshold>
            <left_val>-0.7777777910232544</left_val>
            <right_val>1.</right_val></_></_>
        <_>
          <_>
            <feature>
              <rects>
                <_>
                  11 0 12 2 -1.</_>
                <_>
                  14 0 6 2 2.</_></rects>
              <tilted>0</tilted></feature>
            <threshold>7.0158467860892415e-004</threshold>
            <left_val>0.4889878928661346</left_val>
            <right_val>-0.5148131847381592</right_val></_></_></trees>
      <stage_threshold>-0.2887898981571198</stage_threshold>
      <parent>11</parent>
      <next>-1</next></_>
    <_>
      <trees>
        <_>
          <_>
            <feature>
              <rects>
                <_>
                  1 5 12 14 -1.</_>
                <_>
                  4 5 6 14 2.</_></rects>
              <tilted>0</tilted></feature>
            <threshold>-0.0176527705043554</threshold>
            <left_val>1.</left_val>
            <right_val>-1.</right_val></_></_></trees>
      <stage_threshold>1.</stage_threshold>
      <parent>12</parent>
      <next>-1</next></_></stages></mypokerdetector_7>
</opencv_storage>
