<?xml version="1.0"?>
<opencv_storage>
<mypokerdetector_6 type_id="opencv-haar-classifier">
  <size>
    24 24</size>
  <stages>
    <_>
      <trees>
        <_>
          <_>
            <feature>
              <rects>
                <_>
                  0 0 17 8 -1.</_>
                <_>
                  0 2 17 4 2.</_></rects>
              <tilted>0</tilted></feature>
            <threshold>-0.0470354706048965</threshold>
            <left_val>1.</left_val>
            <right_val>-1.</right_val></_></_></trees>
      <stage_threshold>1.</stage_threshold>
      <parent>-1</parent>
      <next>-1</next></_>
    <_>
      <trees>
        <_>
          <_>
            <feature>
              <rects>
                <_>
                  0 0 8 4 -1.</_>
                <_>
                  2 0 4 4 2.</_></rects>
              <tilted>0</tilted></feature>
            <threshold>8.1520620733499527e-004</threshold>
            <left_val>-1.</left_val>
            <right_val>1.</right_val></_></_></trees>
      <stage_threshold>1.</stage_threshold>
      <parent>0</parent>
      <next>-1</next></_>
    <_>
      <trees>
        <_>
          <_>
            <feature>
              <rects>
                <_>
                  0 0 4 13 -1.</_>
                <_>
                  2 0 2 13 2.</_></rects>
              <tilted>0</tilted></feature>
            <threshold>-1.9040219485759735e-003</threshold>
            <left_val>1.</left_val>
            <right_val>-1.</right_val></_></_></trees>
      <stage_threshold>1.</stage_threshold>
      <parent>1</parent>
      <next>-1</next></_>
    <_>
      <trees>
        <_>
          <_>
            <feature>
              <rects>
                <_>
                  0 0 1 8 -1.</_>
                <_>
                  0 2 1 4 2.</_></rects>
              <tilted>0</tilted></feature>
            <threshold>-9.4869821623433381e-005</threshold>
            <left_val>-1.</left_val>
            <right_val>1.</right_val></_></_></trees>
      <stage_threshold>1.</stage_threshold>
      <parent>2</parent>
      <next>-1</next></_>
    <_>
      <trees>
        <_>
          <_>
            <feature>
              <rects>
                <_>
                  1 0 4 24 -1.</_>
                <_>
                  1 6 4 12 2.</_></rects>
              <tilted>0</tilted></feature>
            <threshold>-0.0447820387780666</threshold>
            <left_val>1.</left_val>
            <right_val>-1.</right_val></_></_></trees>
      <stage_threshold>1.</stage_threshold>
      <parent>3</parent>
      <next>-1</next></_>
    <_>
      <trees>
        <_>
          <_>
            <feature>
              <rects>
                <_>
                  0 0 9 18 -1.</_>
                <_>
                  3 0 3 18 3.</_></rects>
              <tilted>0</tilted></feature>
            <threshold>-0.0747450515627861</threshold>
            <left_val>1.</left_val>
            <right_val>-1.</right_val></_></_></trees>
      <stage_threshold>1.</stage_threshold>
      <parent>4</parent>
      <next>-1</next></_>
    <_>
      <trees>
        <_>
          <_>
            <feature>
              <rects>
                <_>
                  0 0 2 2 -1.</_>
                <_>
                  0 0 1 1 2.</_>
                <_>
                  1 1 1 1 2.</_></rects>
              <tilted>0</tilted></feature>
            <threshold>1.5230140706989914e-004</threshold>
            <left_val>1.</left_val>
            <right_val>-1.</right_val></_></_></trees>
      <stage_threshold>1.</stage_threshold>
      <parent>5</parent>
      <next>-1</next></_>
    <_>
      <trees>
        <_>
          <_>
            <feature>
              <rects>
                <_>
                  0 0 8 18 -1.</_>
                <_>
                  0 6 8 6 3.</_></rects>
              <tilted>0</tilted></feature>
            <threshold>-0.0489665195345879</threshold>
            <left_val>-1.</left_val>
            <right_val>1.</right_val></_></_></trees>
      <stage_threshold>1.</stage_threshold>
      <parent>6</parent>
      <next>-1</next></_></stages></mypokerdetector_6>
</opencv_storage>
