<?xml version="1.0"?>
<opencv_storage>
<mypokerdetector_4 type_id="opencv-haar-classifier">
  <size>
    24 24</size>
  <stages>
    <_>
      <trees>
        <_>
          <_>
            <feature>
              <rects>
                <_>
                  0 0 24 17 -1.</_>
                <_>
                  6 0 12 17 2.</_></rects>
              <tilted>0</tilted></feature>
            <threshold>-0.1341764032840729</threshold>
            <left_val>1.</left_val>
            <right_val>-0.9999995231628418</right_val></_></_></trees>
      <stage_threshold>1.</stage_threshold>
      <parent>-1</parent>
      <next>-1</next></_>
    <_>
      <trees>
        <_>
          <_>
            <feature>
              <rects>
                <_>
                  1 6 21 12 -1.</_>
                <_>
                  8 10 7 4 9.</_></rects>
              <tilted>0</tilted></feature>
            <threshold>0.0378220416605473</threshold>
            <left_val>-1.</left_val>
            <right_val>0.9999995231628418</right_val></_></_></trees>
      <stage_threshold>0.9999995231628418</stage_threshold>
      <parent>0</parent>
      <next>-1</next></_>
    <_>
      <trees>
        <_>
          <_>
            <feature>
              <rects>
                <_>
                  3 0 15 14 -1.</_>
                <_>
                  3 7 15 7 2.</_></rects>
              <tilted>0</tilted></feature>
            <threshold>-0.0721397399902344</threshold>
            <left_val>1.</left_val>
            <right_val>-0.9999995231628418</right_val></_></_></trees>
      <stage_threshold>1.</stage_threshold>
      <parent>1</parent>
      <next>-1</next></_>
    <_>
      <trees>
        <_>
          <_>
            <feature>
              <rects>
                <_>
                  0 17 3 2 -1.</_>
                <_>
                  1 17 1 2 3.</_></rects>
              <tilted>0</tilted></feature>
            <threshold>-1.4111799828242511e-004</threshold>
            <left_val>-1.</left_val>
            <right_val>0.8461533784866333</right_val></_></_></trees>
      <stage_threshold>0.8461533784866333</stage_threshold>
      <parent>2</parent>
      <next>-1</next></_>
    <_>
      <trees>
        <_>
          <_>
            <feature>
              <rects>
                <_>
                  0 3 3 15 -1.</_>
                <_>
                  1 8 1 5 9.</_></rects>
              <tilted>0</tilted></feature>
            <threshold>-2.6777840685099363e-003</threshold>
            <left_val>-1.</left_val>
            <right_val>0.9999995231628418</right_val></_></_></trees>
      <stage_threshold>0.9999995231628418</stage_threshold>
      <parent>3</parent>
      <next>-1</next></_>
    <_>
      <trees>
        <_>
          <_>
            <feature>
              <rects>
                <_>
                  0 0 8 8 -1.</_>
                <_>
                  0 0 4 4 2.</_>
                <_>
                  4 4 4 4 2.</_></rects>
              <tilted>0</tilted></feature>
            <threshold>-1.1921510304091498e-004</threshold>
            <left_val>1.</left_val>
            <right_val>-0.9999995231628418</right_val></_></_></trees>
      <stage_threshold>1.</stage_threshold>
      <parent>4</parent>
      <next>-1</next></_>
    <_>
      <trees>
        <_>
          <_>
            <feature>
              <rects>
                <_>
                  0 5 24 18 -1.</_>
                <_>
                  8 5 8 18 3.</_></rects>
              <tilted>0</tilted></feature>
            <threshold>-0.2157372981309891</threshold>
            <left_val>1.</left_val>
            <right_val>-0.9999995231628418</right_val></_></_></trees>
      <stage_threshold>1.</stage_threshold>
      <parent>5</parent>
      <next>-1</next></_>
    <_>
      <trees>
        <_>
          <_>
            <feature>
              <rects>
                <_>
                  5 0 13 24 -1.</_>
                <_>
                  5 6 13 12 2.</_></rects>
              <tilted>0</tilted></feature>
            <threshold>-0.1489827930927277</threshold>
            <left_val>1.</left_val>
            <right_val>-0.9999995827674866</right_val></_></_></trees>
      <stage_threshold>1.</stage_threshold>
      <parent>6</parent>
      <next>-1</next></_></stages></mypokerdetector_4>
</opencv_storage>
